learning_architecture -0.1443055 0.4927237 0.40080854 -0.22916028 0.28445506 0.072531015 0.18029493 0.1947976 0.13591811 -0.22209567 -0.19299269 0.26910695 0.32438365 0.14788216 0.37208933 -0.073658064 0.3841326 0.427099 0.13089038 0.16123211 -0.26977214 0.5281433 0.14745551 0.106899925 -0.0686038 -0.04910058 0.007639855 0.20621352 -0.020740923 -0.005855806 0.103674 -0.101541094 0.26492602 0.031069826 -0.31034684 -0.0587783 0.10471371 -0.4119193 -0.03325364 -0.16509342 -0.036958218 0.36029026 0.026277512 -0.22412571 -0.28814977 0.25330344 -0.35620558 -0.12482566 0.30495262 0.38239062
coordination_failure 0.07573195 -0.23886877 0.5229673 0.35148013 0.56756985 0.4576369 -0.02889511 0.065335885 -0.23158582 -0.30652416 0.11229601 -0.11922707 -0.095269635 -0.21653977 0.014787585 -0.22007102 -0.2726735 0.19685094 0.05649729 0.1368172 -0.6287739 0.45545596 -0.5482513 -0.41778076 0.20746596 -0.20138812 -0.030870229 -0.021078795 -0.11565894 -0.4914906 -0.30042693 0.34516147 0.04093273 -0.06865281 0.04032457 -0.28435367 0.048018284 0.3442121 -0.07953371 0.35570005 0.3345948 0.2645705 0.30784085 0.17481488 -0.051818658 0.44051206 0.37207624 0.2884113 -0.06596109 0.23101082
basic_skills -0.3164846 0.17302075 -0.5588449 -0.43742844 0.43637064 0.21245241 -0.10814345 0.19441323 0.12934133 -0.4050287 0.15764779 0.4568522 -0.17626001 0.23595831 -0.26756704 0.45263314 -0.1431861 -0.32359132 -0.41106644 -0.13839024 -0.12293668 0.019485429 0.049947366 -0.02711749 -0.20476097 -0.5209819 0.0074407756 0.07958586 -0.029426813 0.4438004 0.15288764 0.07064751 0.38335878 0.2758888 0.13293912 -0.04187667 -0.31826463 0.3995734 -0.128989 0.48569804 0.0034091324 -0.039385386 0.44120476 -0.012947199 -0.08209161 0.16769078 0.11881031 -0.28015712 -0.5807171 -0.43532908
the_internet -0.30096892 0.1383553 0.2938406 -0.0039810687 -0.16714829 -0.0086788535 0.23574984 0.1496783 -0.19807799 0.21460563 -0.20690516 0.047111712 -0.013801813 -0.0116503835 -0.025238723 -0.039967254 0.054118235 -0.1597633 -0.09015539 0.518387 -0.1152439 0.20124511 0.33685642 0.20413144 -0.41175458 -0.2644642 -0.5439056 0.09810023 -0.20032322 -0.554747 -0.35473266 -0.22016074 0.008925632 -0.24752879 0.29697454 -0.033307314 0.10424179 -0.45805675 -0.08871165 0.031444535 0.52349085 -0.1067479 0.14574648 -0.03854496 0.36643636 -0.49486515 0.37344193 0.57733196 0.2472043 -0.074552536
machine_learning 0.037620112 -0.10765637 -0.06866547 0.36504507 -0.019311652 0.15524748 -0.22617196 0.49165073 -0.2235531 -0.54899615 0.26740324 -0.03149286 0.020661622 -0.315659 -0.17098787 -0.061685085 -0.086001754 -0.0904078 0.109191425 0.09939988 -0.3090344 0.059817135 0.15847969 0.0713858 -0.4159853 -0.10297234 -0.2006099 0.05542022 -0.22361204 0.055877015 -0.78746337 0.39432278 -0.32537085 -0.08118197 -0.14857398 -0.31039461 -0.1621319 -0.16973871 -0.6862963 -0.2287172 -0.30303785 -0.09164067 0.017230377 -0.20337072 0.106101625 0.12484673 -0.371462 0.17790255 0.15926048 -0.062916234
social_coordination 0.06420605 -0.015603341 0.27366275 -0.32723963 0.032088876 0.29662344 -0.2033983 0.036580667 -0.20761254 0.19298993 0.14715812 -0.22541292 -0.47798818 -0.3669597 -0.50999844 0.29595107 0.10049897 0.32899606 0.10998918 -0.4023316 -0.108556375 0.02715382 -0.1634492 0.36118555 -0.07110974 -0.24165466 0.07189479 0.12751946 0.31376702 -0.28945294 -0.09355219 0.004379377 -0.40442598 -0.11406803 -0.39894623 -0.3765458 -0.055559143 0.16360572 0.15179114 -0.18164511 0.20227848 0.3368983 -0.4354218 -0.3621849 -0.038118713 0.3432309 0.4220844 -0.50528836 -0.22310649 -0.081554115
explicit_learning -0.2260971 0.004367158 0.19491996 0.046839878 0.14059347 0.27900273 -0.4299108 0.29326546 -0.53862447 -0.015974898 -0.40014437 -0.11684719 -0.08261002 0.08938618 -0.05309855 0.19820358 -0.48836416 -0.45297503 0.20442735 0.46573216 -0.15089908 -0.03323797 0.22851264 0.03400369 0.29817882 -0.19112688 0.17921008 0.03141889 0.18617915 0.034594603 -0.116243966 0.42583156 -0.042094976 0.33831728 0.26814526 -0.036630772 -0.4169508 -0.16620404 -0.14161867 -0.041150592 -0.009695321 -4.9471855e-06 -0.093683936 -0.44811594 0.17401165 0.3756764 -0.08912687 0.25743625 0.117391124 -0.45571196
best_interests 0.43346718 0.090596974 -0.07137227 -0.011027396 -0.018139765 0.25979316 0.2155646 0.21733445 -0.5003089 -0.32198024 -0.08881971 0.004973054 0.20801748 -0.22846878 0.21322866 0.24476737 -0.13144466 -0.07069875 -0.2730571 -0.42014492 0.54519486 0.027234651 0.5412488 -0.27185318 0.01124312 -0.3886465 0.26587522 0.09615789 -0.018418893 0.26833358 -0.20129652 0.51256365 -0.10248132 0.034773327 -0.0077912062 -0.23064876 -0.05439976 0.16138119 -0.03513734 0.055665232 -0.2370665 0.02663295 -0.33666766 0.100563794 -0.10571806 0.040249083 0.046089143 -0.12551285 0.20431352 0.018417269
reinforcement_learning -0.24764214 -0.5006778 -0.030209795 0.13799438 -0.035165295 0.05269833 0.06041933 -0.00020684302 0.24014647 -0.09132114 -0.23942561 0.074707836 0.027083904 0.12117097 0.24798825 -0.08132187 0.36106706 -0.16883676 0.2213448 -0.26808232 -0.0673131 0.08977565 0.029584862 0.07923499 -0.20625323 0.08694337 0.33556664 -0.0068645626 0.2938301 0.026347492 0.08534573 -0.12013867 -0.16652375 -0.2300605 0.07785931 -0.025228336 0.30588603 0.026017003 -0.2003759 0.02469778 0.0032421127 -0.1552262 -0.14872825 0.15579912 0.34146956 0.51677585 0.27772933 0.021826714 -0.025171055 0.348221
